digraph Tree {
node [shape=box] ;
0 [label="pilot_age <= 51.5\ngini = 0.271\nsamples = 11181\nvalue = [9378, 1803]"] ;
1 [label="pilot_age <= 50.5\ngini = 0.239\nsamples = 6134\nvalue = [5285, 849]"] ;
0 -> 1 [labeldistance=2.5, labelangle=45, headlabel="True"] ;
2 [label="pilot_age <= 31.5\ngini = 0.263\nsamples = 4796\nvalue = [4049, 747]"] ;
1 -> 2 ;
3 [label="gini = 0.207\nsamples = 1374\nvalue = [1213, 161]"] ;
2 -> 3 ;
4 [label="gini = 0.284\nsamples = 3422\nvalue = [2836, 586]"] ;
2 -> 4 ;
5 [label="pilot_total_hours <= 45258.5\ngini = 0.141\nsamples = 1338\nvalue = [1236, 102]"] ;
1 -> 5 ;
6 [label="gini = 0.14\nsamples = 1337\nvalue = [1236, 101]"] ;
5 -> 6 ;
7 [label="gini = 0.0\nsamples = 1\nvalue = [0, 1]"] ;
5 -> 7 ;
8 [label="pilot_total_hours <= 1220.5\ngini = 0.307\nsamples = 5047\nvalue = [4093, 954]"] ;
0 -> 8 [labeldistance=2.5, labelangle=-45, headlabel="False"] ;
9 [label="pilot_age <= 63.5\ngini = 0.342\nsamples = 2151\nvalue = [1680, 471]"] ;
8 -> 9 ;
10 [label="gini = 0.312\nsamples = 1446\nvalue = [1166, 280]"] ;
9 -> 10 ;
11 [label="gini = 0.395\nsamples = 705\nvalue = [514, 191]"] ;
9 -> 11 ;
12 [label="pilot_age <= 88.5\ngini = 0.278\nsamples = 2896\nvalue = [2413, 483]"] ;
8 -> 12 ;
13 [label="gini = 0.277\nsamples = 2893\nvalue = [2413, 480]"] ;
12 -> 13 ;
14 [label="gini = 0.0\nsamples = 3\nvalue = [0, 3]"] ;
12 -> 14 ;
}